{
  "weights": [
    [
      [
        6.0014018210271605,
        4.9193772035452276e-231,
        5.183199277653285,
        5.205322979530821,
        5.728704984378487,
        1.4119673628491173e-177,
        6.528983562322275,
        2.3259153488239783e-140
      ],
      [
        2.4228384616074106,
        6.331411054098126e-229,
        1.3183859585681739,
        1.4399563903759958,
        2.096311458893436,
        1.779660612272297e-167,
        1.3042860612547782,
        3.7386196875312255e-230
      ]
    ],
    [
      [
        -3.3708008465544435e-192,
        1.31156996152695e-159,
        4.79905975416496,
        3.7934008714254115,
        4.221574537908777,
        4.167147615340119,
        1.1924391636303074e-231,
        3.7183409789003927
      ],
      [
        4.0647378473698904e-219,
        1.0041137651415878e-161,
        1.266409210975588e-152,
        4.62323846858063e-199,
        -9.045818085087931e-170,
        5.264771911537245e-206,
        -1.0161171251848523e-156,
        2.012450584810228e-207
      ],
      [
        1.5672069584114807e-173,
        -9.452466829610498e-173,
        3.944101832010221,
        3.787604405213481,
        4.46066779498212,
        4.3409205523514105,
        3.8143300533215974e-197,
        3.7803913832364016
      ],
      [
        -5.074060828713156e-153,
        6.281789559385683e-154,
        3.496674342852751,
        4.190504396534118,
        4.069228677768887,
        4.381649678047923,
        -2.2280268195048773e-220,
        4.04092996212661
      ],
      [
        -5.228400771731533e-162,
        -1.7027189629111477e-228,
        5.377999884143554,
        4.514524652558983,
        5.487055832804725,
        5.09791607701292,
        1.8656146664609723e-153,
        4.4031302472864695
      ],
      [
        3.331720355509016e-170,
        -2.066434652456376e-193,
        -8.912217315088965e-180,
        -6.432436755251115e-189,
        1.7876422244708737e-154,
        -6.800831087718964e-197,
        2.571599325896996e-230,
        -2.8046814060202277e-196
      ],
      [
        -1.7562408459960228e-228,
        3.670200133382385e-163,
        4.154363060795317,
        4.4762516107381645,
        4.441139575652815,
        5.014967399487861,
        3.875312014714612e-227,
        4.806416019945919
      ],
      [
        2.0559189923105557e-183,
        -3.3970346585357425e-182,
        9.898241675599168e-195,
        -7.838683334134683e-231,
        -1.612662535881497e-178,
        5.744084564092061e-225,
        -5.699105816767554e-178,
        1.4283078665685101e-170
      ]
    ],
    [
      [
        2.4297839706062854e-203,
        8.94519888970093e-146,
        -7.041302417888511e-145,
        -8.632256210335966e-221
      ],
      [
        2.7768867948943047e-182,
        1.69759649009941e-146,
        7.378670593764265e-185,
        1.2232256691682615e-159
      ],
      [
        0.08128838935462299,
        0.6038420772101557,
        4.488196940605769,
        3.9150198138628927
      ],
      [
        -0.5552681950783535,
        0.14222017974657275,
        4.803859778266539,
        0.38207439885018984
      ],
      [
        -0.4858921037527949,
        -0.1376431558475623,
        4.332760925893616,
        0.5251964340222931
      ],
      [
        0.8167320264404274,
        -0.4806748948367968,
        4.319934456960171,
        -1.6235668906022267
      ],
      [
        7.493333363323068e-183,
        -5.059140627071457e-209,
        -9.543533123451627e-230,
        3.100196590650012e-192
      ],
      [
        0.0984790629272183,
        -0.0907396854516188,
        4.943254763553591,
        -2.787079017771064
      ]
    ]
  ],
  "biases": [
    [
      0.7699836853315359,
      -0.3296896982217207,
      1.4176780277807723,
      1.3768686477783805,
      -1.8789716083631778,
      -0.49202211038015653,
      0.587270159971976,
      -0.6656342493064829
    ],
    [
      -0.1900753239725928,
      -0.09063866963585765,
      1.0554195306475784,
      0.8604639666722879,
      0.8021901351539119,
      0.5288410083648515,
      -0.28368936093224195,
      0.42087230704963835
    ],
    [
      0.31716980861441285,
      0.4254178538934896,
      0.024122707789936124,
      5.101083164735413
    ]
  ],
  "activation": "relu"
}